<?xml version="1.0"?>
<opencv_storage>
<stage3>
  <maxWeakCount>56</maxWeakCount>
  <stageThreshold>-1.2855206727981567e+00</stageThreshold>
  <weakClassifiers>
    <_>
      <internalNodes>
        0 -1 1976522 8.0413790419697762e-03</internalNodes>
      <leafValues>
        -6.4802515506744385e-01 8.2022470235824585e-01</leafValues></_>
    <_>
      <internalNodes>
        0 -1 770517 4.3429303914308548e-03</internalNodes>
      <leafValues>
        -3.8814479485154152e-03 -6.9697821140289307e-01</leafValues></_>
    <_>
      <internalNodes>
        0 -1 1035632 1.5964392572641373e-02</internalNodes>
      <leafValues>
        -9.1449379920959473e-02 6.5831857919692993e-01</leafValues></_>
    <_>
      <internalNodes>
        0 -1 1837336 3.6327031557448208e-04</internalNodes>
      <leafValues>
        -2.3242832720279694e-01 2.2464089095592499e-01</leafValues></_>
    <_>
      <internalNodes>
        0 -1 694570 -3.0925497412681580e-03</internalNodes>
      <leafValues>
        -4.4040790200233459e-01 1.6310285031795502e-01</leafValues></_>
    <_>
      <internalNodes>
        0 -1 668056 -4.8998035490512848e-03</internalNodes>
      <leafValues>
        4.2516386508941650e-01 -1.4178478717803955e-01</leafValues></_>
    <_>
      <internalNodes>
        0 -1 736646 1.5476180706173182e-03</internalNodes>
      <leafValues>
        -1.8383495509624481e-01 3.3437076210975647e-01</leafValues></_>
    <_>
      <internalNodes>
        0 -1 1576 4.0035988204181194e-03</internalNodes>
      <leafValues>
        1.0595215857028961e-01 -5.4076707363128662e-01</leafValues></_>
    <_>
      <internalNodes>
        0 -1 1984606 7.4771987274289131e-03</internalNodes>
      <leafValues>
        6.8712070584297180e-02 -8.0563610792160034e-01</leafValues></_>
    <_>
      <internalNodes>
        0 -1 1517629 8.3609623834490776e-04</internalNodes>
      <leafValues>
        -2.0937524735927582e-01 2.7471509575843811e-01</leafValues></_>
    <_>
      <internalNodes>
        0 -1 1675411 -2.0634550601243973e-03</internalNodes>
      <leafValues>
        -4.7892621159553528e-01 1.2542161345481873e-01</leafValues></_>
    <_>
      <internalNodes>
        0 -1 1391718 1.0738972341641784e-03</internalNodes>
      <leafValues>
        -1.6637951135635376e-01 3.4282997250556946e-01</leafValues></_>
    <_>
      <internalNodes>
        0 -1 1224183 9.2681087553501129e-03</internalNodes>
      <leafValues>
        -1.8076971173286438e-01 3.0459943413734436e-01</leafValues></_>
    <_>
      <internalNodes>
        0 -1 1228118 1.4674558769911528e-03</internalNodes>
      <leafValues>
        -1.7728017270565033e-01 3.1821784377098083e-01</leafValues></_>
    <_>
      <internalNodes>
        0 -1 26133 2.3995097726583481e-03</internalNodes>
      <leafValues>
        -1.7177601158618927e-01 3.2981812953948975e-01</leafValues></_>
    <_>
      <internalNodes>
        0 -1 712043 -9.8639335483312607e-03</internalNodes>
      <leafValues>
        -7.1012628078460693e-01 8.9513219892978668e-02</leafValues></_>
    <_>
      <internalNodes>
        0 -1 1250165 -9.2298155650496483e-03</internalNodes>
      <leafValues>
        2.8809204697608948e-01 -2.1118097007274628e-01</leafValues></_>
    <_>
      <internalNodes>
        0 -1 1111592 5.2245263941586018e-04</internalNodes>
      <leafValues>
        1.1830992251634598e-01 -4.5202213525772095e-01</leafValues></_>
    <_>
      <internalNodes>
        0 -1 1895166 -3.7188245914876461e-04</internalNodes>
      <leafValues>
        3.9203381538391113e-01 -1.3941937685012817e-01</leafValues></_>
    <_>
      <internalNodes>
        0 -1 687848 2.6925094425678253e-03</internalNodes>
      <leafValues>
        7.9601608216762543e-02 -7.5348591804504395e-01</leafValues></_>
    <_>
      <internalNodes>
        0 -1 1801631 8.0267956946045160e-04</internalNodes>
      <leafValues>
        5.7022765278816223e-02 -7.3975384235382080e-01</leafValues></_>
    <_>
      <internalNodes>
        0 -1 2025520 2.8022520709782839e-03</internalNodes>
      <leafValues>
        4.9278460443019867e-02 -8.1180304288864136e-01</leafValues></_>
    <_>
      <internalNodes>
        0 -1 1927390 -1.6733536031097174e-03</internalNodes>
      <leafValues>
        4.2132514715194702e-01 -1.2959331274032593e-01</leafValues></_>
    <_>
      <internalNodes>
        0 -1 1899005 5.8789126342162490e-04</internalNodes>
      <leafValues>
        -1.5362170338630676e-01 3.3395200967788696e-01</leafValues></_>
    <_>
      <internalNodes>
        0 -1 1346537 -2.8524622321128845e-02</internalNodes>
      <leafValues>
        3.9786469936370850e-01 -1.4848537743091583e-01</leafValues></_>
    <_>
      <internalNodes>
        0 -1 696895 1.4331270754337311e-01</internalNodes>
      <leafValues>
        -1.1684578657150269e-01 4.5295086503028870e-01</leafValues></_>
    <_>
      <internalNodes>
        0 -1 1851625 -4.7501935623586178e-03</internalNodes>
      <leafValues>
        5.4523217678070068e-01 -9.3207135796546936e-02</leafValues></_>
    <_>
      <internalNodes>
        0 -1 46616 3.0814827186986804e-04</internalNodes>
      <leafValues>
        -1.6049391031265259e-01 3.2918736338615417e-01</leafValues></_>
    <_>
      <internalNodes>
        0 -1 46609 -3.9544279570691288e-04</internalNodes>
      <leafValues>
        3.8356918096542358e-01 -1.4506430923938751e-01</leafValues></_>
    <_>
      <internalNodes>
        0 -1 1938282 -3.8252989761531353e-03</internalNodes>
      <leafValues>
        3.5369041562080383e-01 -1.5722115337848663e-01</leafValues></_>
    <_>
      <internalNodes>
        0 -1 1784224 -4.2280610650777817e-03</internalNodes>
      <leafValues>
        5.0004309415817261e-01 -1.1665522307157516e-01</leafValues></_>
    <_>
      <internalNodes>
        0 -1 693882 -8.0257683293893933e-05</internalNodes>
      <leafValues>
        -4.4658482074737549e-01 1.2136319279670715e-01</leafValues></_>
    <_>
      <internalNodes>
        0 -1 670082 2.1818911773152649e-04</internalNodes>
      <leafValues>
        -1.7277352511882782e-01 3.1002423167228699e-01</leafValues></_>
    <_>
      <internalNodes>
        0 -1 2012654 -6.9020164664834738e-04</internalNodes>
      <leafValues>
        -6.2696474790573120e-01 8.3331935107707977e-02</leafValues></_>
    <_>
      <internalNodes>
        0 -1 538432 -3.3248960971832275e-04</internalNodes>
      <leafValues>
        -5.5765700340270996e-01 7.9199925065040588e-02</leafValues></_>
    <_>
      <internalNodes>
        0 -1 1104185 5.9241126291453838e-04</internalNodes>
      <leafValues>
        -1.6035300493240356e-01 3.1433412432670593e-01</leafValues></_>
    <_>
      <internalNodes>
        0 -1 1102967 -2.5201789103448391e-03</internalNodes>
      <leafValues>
        4.5073735713958740e-01 -1.2401530146598816e-01</leafValues></_>
    <_>
      <internalNodes>
        0 -1 978815 3.1624438706785440e-03</internalNodes>
      <leafValues>
        7.7455490827560425e-02 -7.2296798229217529e-01</leafValues></_>
    <_>
      <internalNodes>
        0 -1 1117756 -1.8939709663391113e-01</internalNodes>
      <leafValues>
        5.6412386894226074e-01 -1.0264727473258972e-01</leafValues></_>
    <_>
      <internalNodes>
        0 -1 2036367 7.9133977124001831e-05</internalNodes>
      <leafValues>
        1.1245705187320709e-01 -4.9682387709617615e-01</leafValues></_>
    <_>
      <internalNodes>
        0 -1 1779329 -1.2171564158052206e-03</internalNodes>
      <leafValues>
        3.7734684348106384e-01 -1.5178969502449036e-01</leafValues></_>
    <_>
      <internalNodes>
        0 -1 1408001 4.3084670323878527e-04</internalNodes>
      <leafValues>
        -2.1266487240791321e-01 2.6217854022979736e-01</leafValues></_>
    <_>
      <internalNodes>
        0 -1 490857 1.9933029543608427e-03</internalNodes>
      <leafValues>
        7.3357090353965759e-02 -7.1929025650024414e-01</leafValues></_>
    <_>
      <internalNodes>
        0 -1 2016766 4.8577915877103806e-03</internalNodes>
      <leafValues>
        -1.7939038574695587e-01 3.0086317658424377e-01</leafValues></_>
    <_>
      <internalNodes>
        0 -1 820408 1.0361402528360486e-03</internalNodes>
      <leafValues>
        -1.5228985249996185e-01 3.2474598288536072e-01</leafValues></_>
    <_>
      <internalNodes>
        0 -1 962590 -2.7605772484093904e-03</internalNodes>
      <leafValues>
        4.5093238353729248e-01 -1.3098698854446411e-01</leafValues></_>
    <_>
      <internalNodes>
        0 -1 977645 1.0571149177849293e-03</internalNodes>
      <leafValues>
        9.0056970715522766e-02 -6.5960752964019775e-01</leafValues></_>
    <_>
      <internalNodes>
        0 -1 1241567 2.9945797286927700e-03</internalNodes>
      <leafValues>
        8.0534800887107849e-02 -5.3633338212966919e-01</leafValues></_>
    <_>
      <internalNodes>
        0 -1 1218700 -2.1266739815473557e-02</internalNodes>
      <leafValues>
        6.3523459434509277e-01 -8.6354851722717285e-02</leafValues></_>
    <_>
      <internalNodes>
        0 -1 1482206 3.2030901638790965e-04</internalNodes>
      <leafValues>
        -1.8061423301696777e-01 2.7553758025169373e-01</leafValues></_>
    <_>
      <internalNodes>
        0 -1 1987665 4.5213889097794890e-04</internalNodes>
      <leafValues>
        1.1616960912942886e-01 -4.3584343791007996e-01</leafValues></_>
    <_>
      <internalNodes>
        0 -1 1676059 9.0714439284056425e-04</internalNodes>
      <leafValues>
        8.4535062313079834e-02 -5.4298722743988037e-01</leafValues></_>
    <_>
      <internalNodes>
        0 -1 662923 -1.4126399159431458e-01</internalNodes>
      <leafValues>
        3.7021216750144958e-01 -1.4178337156772614e-01</leafValues></_>
    <_>
      <internalNodes>
        0 -1 1667152 -8.4913428872823715e-04</internalNodes>
      <leafValues>
        4.6212461590766907e-01 -1.0493820905685425e-01</leafValues></_>
    <_>
      <internalNodes>
        0 -1 1839714 6.3312530983239412e-05</internalNodes>
      <leafValues>
        9.5016039907932281e-02 -5.7563209533691406e-01</leafValues></_>
    <_>
      <internalNodes>
        0 -1 41158 1.8297758651897311e-04</internalNodes>
      <leafValues>
        -1.8881915509700775e-01 2.6572373509407043e-01</leafValues></_></weakClassifiers></stage3>
</opencv_storage>
