<?xml version="1.0"?>
<opencv_storage>
<cascade>
  <stageType>BOOST</stageType>
  <featureType>HAAR</featureType>
  <height>100</height>
  <width>40</width>
  <stageParams>
    <boostType>GAB</boostType>
    <minHitRate>9.9900001287460327e-01</minHitRate>
    <maxFalseAlarm>2.0000000298023224e-01</maxFalseAlarm>
    <weightTrimRate>9.4999999999999996e-01</weightTrimRate>
    <maxDepth>1</maxDepth>
    <maxWeakCount>100</maxWeakCount></stageParams>
  <featureParams>
    <maxCatCount>0</maxCatCount>
    <featSize>1</featSize>
    <mode>ALL</mode></featureParams>
  <stageNum>6</stageNum>
  <stages>
    <!-- stage 0 -->
    <_>
      <maxWeakCount>8</maxWeakCount>
      <stageThreshold>-1.3903273344039917e+00</stageThreshold>
      <weakClassifiers>
        <_>
          <internalNodes>
            0 -1 12 -1.5728287398815155e-02</internalNodes>
          <leafValues>
            5.8663880825042725e-01 -7.8015077114105225e-01</leafValues></_>
        <_>
          <internalNodes>
            0 -1 9 -6.7407535389065742e-03</internalNodes>
          <leafValues>
            6.9437503814697266e-01 -5.3596204519271851e-01</leafValues></_>
        <_>
          <internalNodes>
            0 -1 61 -2.9624796006828547e-03</internalNodes>
          <leafValues>
            5.4553902149200439e-01 -5.3884577751159668e-01</leafValues></_>
        <_>
          <internalNodes>
            0 -1 37 -1.3548077549785376e-03</internalNodes>
          <leafValues>
            7.5525367259979248e-01 -3.1930229067802429e-01</leafValues></_>
        <_>
          <internalNodes>
            0 -1 60 -7.8916538041085005e-04</internalNodes>
          <leafValues>
            7.7875393629074097e-01 -2.7305456995964050e-01</leafValues></_>
        <_>
          <internalNodes>
            0 -1 86 -8.1748180091381073e-03</internalNodes>
          <leafValues>
            8.0895423889160156e-01 -2.4088850617408752e-01</leafValues></_>
        <_>
          <internalNodes>
            0 -1 66 1.8941878806799650e-03</internalNodes>
          <leafValues>
            -2.4146081507205963e-01 8.8140124082565308e-01</leafValues></_>
        <_>
          <internalNodes>
            0 -1 2 -2.6841446757316589e-02</internalNodes>
          <leafValues>
            4.8752894997596741e-01 -4.8859196901321411e-01</leafValues></_></weakClassifiers></_>
    <!-- stage 1 -->
    <_>
      <maxWeakCount>15</maxWeakCount>
      <stageThreshold>-1.0357732772827148e+00</stageThreshold>
      <weakClassifiers>
        <_>
          <internalNodes>
            0 -1 24 1.8257644027471542e-02</internalNodes>
          <leafValues>
            -6.9230771064758301e-01 1.8808193504810333e-01</leafValues></_>
        <_>
          <internalNodes>
            0 -1 21 -5.7574737071990967e-01</internalNodes>
          <leafValues>
            7.4912327527999878e-01 -3.6038354039192200e-01</leafValues></_>
        <_>
          <internalNodes>
            0 -1 67 -3.9593828842043877e-04</internalNodes>
          <leafValues>
            7.0319217443466187e-01 -2.5300976634025574e-01</leafValues></_>
        <_>
          <internalNodes>
            0 -1 31 5.1410458981990814e-03</internalNodes>
          <leafValues>
            -2.0164744555950165e-01 7.8248077630996704e-01</leafValues></_>
        <_>
          <internalNodes>
            0 -1 25 -4.4199498370289803e-03</internalNodes>
          <leafValues>
            3.1230562925338745e-01 -5.4795348644256592e-01</leafValues></_>
        <_>
          <internalNodes>
            0 -1 72 -1.7632448580116034e-03</internalNodes>
          <leafValues>
            7.6210796833038330e-01 -2.3285543918609619e-01</leafValues></_>
        <_>
          <internalNodes>
            0 -1 59 -1.8510625232011080e-03</internalNodes>
          <leafValues>
            5.9989571571350098e-01 -2.3951521515846252e-01</leafValues></_>
        <_>
          <internalNodes>
            0 -1 71 -4.1506718844175339e-03</internalNodes>
          <leafValues>
            5.5312997102737427e-01 -2.2778871655464172e-01</leafValues></_>
        <_>
          <internalNodes>
            0 -1 5 -6.2161707319319248e-03</internalNodes>
          <leafValues>
            6.8406629562377930e-01 -2.3028296232223511e-01</leafValues></_>
        <_>
          <internalNodes>
            0 -1 27 -1.0038525797426701e-03</internalNodes>
          <leafValues>
            -8.3494913578033447e-01 1.9805389642715454e-01</leafValues></_>
        <_>
          <internalNodes>
            0 -1 47 -1.4805734390392900e-03</internalNodes>
          <leafValues>
            6.8541985750198364e-01 -2.3248036205768585e-01</leafValues></_>
        <_>
          <internalNodes>
            0 -1 99 -2.3053158656693995e-04</internalNodes>
          <leafValues>
            -7.8251761198043823e-01 1.9309939444065094e-01</leafValues></_>
        <_>
          <internalNodes>
            0 -1 80 -1.1131267528980970e-03</internalNodes>
          <leafValues>
            6.4340704679489136e-01 -2.2547271847724915e-01</leafValues></_>
        <_>
          <internalNodes>
            0 -1 92 8.3580696955323219e-03</internalNodes>
          <leafValues>
            -2.6821860671043396e-01 4.7937270998954773e-01</leafValues></_>
        <_>
          <internalNodes>
            0 -1 93 -9.7797811031341553e-03</internalNodes>
          <leafValues>
            7.7960777282714844e-01 -1.7089249193668365e-01</leafValues></_></weakClassifiers></_>
    <!-- stage 2 -->
    <_>
      <maxWeakCount>19</maxWeakCount>
      <stageThreshold>-1.1901160478591919e+00</stageThreshold>
      <weakClassifiers>
        <_>
          <internalNodes>
            0 -1 45 -1.7126069962978363e-01</internalNodes>
          <leafValues>
            5.7407408952713013e-01 -5.8490568399429321e-01</leafValues></_>
        <_>
          <internalNodes>
            0 -1 7 8.3016660064458847e-03</internalNodes>
          <leafValues>
            -4.8531663417816162e-01 3.7089356780052185e-01</leafValues></_>
        <_>
          <internalNodes>
            0 -1 26 6.9653126411139965e-04</internalNodes>
          <leafValues>
            1.7605313658714294e-01 -7.4851351976394653e-01</leafValues></_>
        <_>
          <internalNodes>
            0 -1 63 -2.6533356867730618e-03</internalNodes>
          <leafValues>
            5.9308981895446777e-01 -2.2951398789882660e-01</leafValues></_>
        <_>
          <internalNodes>
            0 -1 95 -1.5137678710743785e-03</internalNodes>
          <leafValues>
            6.7372971773147583e-01 -1.6320516169071198e-01</leafValues></_>
        <_>
          <internalNodes>
            0 -1 35 5.3288764320313931e-04</internalNodes>
          <leafValues>
            1.6039654612541199e-01 -8.4738618135452271e-01</leafValues></_>
        <_>
          <internalNodes>
            0 -1 82 -1.8351697362959385e-03</internalNodes>
          <leafValues>
            7.0045018196105957e-01 -2.0589622855186462e-01</leafValues></_>
        <_>
          <internalNodes>
            0 -1 0 -7.1633430197834969e-03</internalNodes>
          <leafValues>
            5.7344317436218262e-01 -1.9249047338962555e-01</leafValues></_>
        <_>
          <internalNodes>
            0 -1 14 1.3723137089982629e-03</internalNodes>
          <leafValues>
            1.7439889907836914e-01 -7.2082686424255371e-01</leafValues></_>
        <_>
          <internalNodes>
            0 -1 56 -5.9362663887441158e-04</internalNodes>
          <leafValues>
            5.0565540790557861e-01 -2.6438537240028381e-01</leafValues></_>
        <_>
          <internalNodes>
            0 -1 98 7.9119708389043808e-03</internalNodes>
          <leafValues>
            -2.1635487675666809e-01 5.2182853221893311e-01</leafValues></_>
        <_>
          <internalNodes>
            0 -1 84 -1.9563974638003856e-04</internalNodes>
          <leafValues>
            6.0447895526885986e-01 -1.9781093299388885e-01</leafValues></_>
        <_>
          <internalNodes>
            0 -1 10 5.6266668252646923e-04</internalNodes>
          <leafValues>
            1.7199575901031494e-01 -7.7427530288696289e-01</leafValues></_>
        <_>
          <internalNodes>
            0 -1 81 2.5895537692122161e-04</internalNodes>
          <leafValues>
            -2.6599761843681335e-01 5.3397434949874878e-01</leafValues></_>
        <_>
          <internalNodes>
            0 -1 83 -8.8736653560772538e-04</internalNodes>
          <leafValues>
            5.9389692544937134e-01 -1.8450109660625458e-01</leafValues></_>
        <_>
          <internalNodes>
            0 -1 79 1.5771109610795975e-03</internalNodes>
          <leafValues>
            -1.7944203317165375e-01 7.2191655635833740e-01</leafValues></_>
        <_>
          <internalNodes>
            0 -1 74 -9.9059965577907860e-05</internalNodes>
          <leafValues>
            -7.7081048488616943e-01 1.9701577723026276e-01</leafValues></_>
        <_>
          <internalNodes>
            0 -1 23 -9.7771128639578819e-04</internalNodes>
          <leafValues>
            -6.1696565151214600e-01 1.7241743206977844e-01</leafValues></_>
        <_>
          <internalNodes>
            0 -1 41 9.7533140797168016e-04</internalNodes>
          <leafValues>
            -4.2320072650909424e-01 2.8785982728004456e-01</leafValues></_></weakClassifiers></_>
    <!-- stage 3 -->
    <_>
      <maxWeakCount>18</maxWeakCount>
      <stageThreshold>-1.0052850246429443e+00</stageThreshold>
      <weakClassifiers>
        <_>
          <internalNodes>
            0 -1 58 -7.2300210595130920e-02</internalNodes>
          <leafValues>
            4.7945204377174377e-01 -5.7559394836425781e-01</leafValues></_>
        <_>
          <internalNodes>
            0 -1 78 -6.5868333913385868e-03</internalNodes>
          <leafValues>
            6.8842422962188721e-01 -2.3555356264114380e-01</leafValues></_>
        <_>
          <internalNodes>
            0 -1 19 6.0508400201797485e-04</internalNodes>
          <leafValues>
            1.5926116704940796e-01 -7.6363891363143921e-01</leafValues></_>
        <_>
          <internalNodes>
            0 -1 36 3.9807480061426759e-04</internalNodes>
          <leafValues>
            1.2864883244037628e-01 -7.3975259065628052e-01</leafValues></_>
        <_>
          <internalNodes>
            0 -1 48 -1.5561364125460386e-03</internalNodes>
          <leafValues>
            7.4580991268157959e-01 -1.7494419217109680e-01</leafValues></_>
        <_>
          <internalNodes>
            0 -1 44 3.8477513939142227e-02</internalNodes>
          <leafValues>
            -1.0888981819152832e-01 7.0266681909561157e-01</leafValues></_>
        <_>
          <internalNodes>
            0 -1 88 -5.3879846818745136e-03</internalNodes>
          <leafValues>
            5.2436423301696777e-01 -2.4732688069343567e-01</leafValues></_>
        <_>
          <internalNodes>
            0 -1 33 -1.1927224695682526e-03</internalNodes>
          <leafValues>
            5.0888103246688843e-01 -2.4109248816967010e-01</leafValues></_>
        <_>
          <internalNodes>
            0 -1 3 -3.5786679945886135e-03</internalNodes>
          <leafValues>
            5.8243507146835327e-01 -1.8209956586360931e-01</leafValues></_>
        <_>
          <internalNodes>
            0 -1 75 -4.7920597717165947e-03</internalNodes>
          <leafValues>
            6.6230553388595581e-01 -1.9319953024387360e-01</leafValues></_>
        <_>
          <internalNodes>
            0 -1 16 -7.7556855976581573e-03</internalNodes>
          <leafValues>
            -7.6102048158645630e-01 1.8656745553016663e-01</leafValues></_>
        <_>
          <internalNodes>
            0 -1 87 -1.6935624880716205e-03</internalNodes>
          <leafValues>
            6.3109910488128662e-01 -2.0192441344261169e-01</leafValues></_>
        <_>
          <internalNodes>
            0 -1 97 -1.6620642272755504e-03</internalNodes>
          <leafValues>
            6.0091143846511841e-01 -2.1502022445201874e-01</leafValues></_>
        <_>
          <internalNodes>
            0 -1 65 -3.1051267869770527e-03</internalNodes>
          <leafValues>
            5.2939087152481079e-01 -2.4386471509933472e-01</leafValues></_>
        <_>
          <internalNodes>
            0 -1 38 -1.7840920481830835e-03</internalNodes>
          <leafValues>
            -7.8682249784469604e-01 1.6813094913959503e-01</leafValues></_>
        <_>
          <internalNodes>
            0 -1 76 -3.1151147559285164e-03</internalNodes>
          <leafValues>
            8.0702853202819824e-01 -1.7313334345817566e-01</leafValues></_>
        <_>
          <internalNodes>
            0 -1 20 4.4930875301361084e-03</internalNodes>
          <leafValues>
            1.7959861457347870e-01 -7.8944605588912964e-01</leafValues></_>
        <_>
          <internalNodes>
            0 -1 32 -2.1570632234215736e-03</internalNodes>
          <leafValues>
            3.3227229118347168e-01 -3.9108797907829285e-01</leafValues></_></weakClassifiers></_>
    <!-- stage 4 -->
    <_>
      <maxWeakCount>22</maxWeakCount>
      <stageThreshold>-1.1530269384384155e+00</stageThreshold>
      <weakClassifiers>
        <_>
          <internalNodes>
            0 -1 54 -1.8424566835165024e-02</internalNodes>
          <leafValues>
            6.5161287784576416e-01 -5.5427974462509155e-01</leafValues></_>
        <_>
          <internalNodes>
            0 -1 51 2.6477510109543800e-03</internalNodes>
          <leafValues>
            -2.8766041994094849e-01 5.6362515687942505e-01</leafValues></_>
        <_>
          <internalNodes>
            0 -1 43 -3.3618089219089597e-05</internalNodes>
          <leafValues>
            -6.7885440587997437e-01 2.0205299556255341e-01</leafValues></_>
        <_>
          <internalNodes>
            0 -1 70 -3.6587510257959366e-03</internalNodes>
          <leafValues>
            2.8562131524085999e-01 -3.7629288434982300e-01</leafValues></_>
        <_>
          <internalNodes>
            0 -1 17 -1.0374782606959343e-02</internalNodes>
          <leafValues>
            5.2477920055389404e-01 -2.2102399170398712e-01</leafValues></_>
        <_>
          <internalNodes>
            0 -1 8 -3.9710698183625937e-04</internalNodes>
          <leafValues>
            6.4260268211364746e-01 -1.7162801325321198e-01</leafValues></_>
        <_>
          <internalNodes>
            0 -1 55 -1.9783512107096612e-04</internalNodes>
          <leafValues>
            5.1475542783737183e-01 -2.1024081110954285e-01</leafValues></_>
        <_>
          <internalNodes>
            0 -1 62 -1.2786819133907557e-03</internalNodes>
          <leafValues>
            4.9727439880371094e-01 -2.4286910891532898e-01</leafValues></_>
        <_>
          <internalNodes>
            0 -1 57 -8.3087221719324589e-04</internalNodes>
          <leafValues>
            -7.8561317920684814e-01 1.5165066719055176e-01</leafValues></_>
        <_>
          <internalNodes>
            0 -1 68 -9.8063214682042599e-04</internalNodes>
          <leafValues>
            7.1006518602371216e-01 -1.6992947459220886e-01</leafValues></_>
        <_>
          <internalNodes>
            0 -1 28 -1.8065716326236725e-01</internalNodes>
          <leafValues>
            6.2915998697280884e-01 -1.7591924965381622e-01</leafValues></_>
        <_>
          <internalNodes>
            0 -1 4 1.5070416964590549e-02</internalNodes>
          <leafValues>
            -1.4692957699298859e-01 7.8393769264221191e-01</leafValues></_>
        <_>
          <internalNodes>
            0 -1 18 -2.8535355813801289e-03</internalNodes>
          <leafValues>
            5.1121675968170166e-01 -2.4373786151409149e-01</leafValues></_>
        <_>
          <internalNodes>
            0 -1 39 -3.3990680822171271e-04</internalNodes>
          <leafValues>
            -6.3028174638748169e-01 2.0179675519466400e-01</leafValues></_>
        <_>
          <internalNodes>
            0 -1 89 -8.7925529805943370e-04</internalNodes>
          <leafValues>
            6.0493510961532593e-01 -2.0303437113761902e-01</leafValues></_>
        <_>
          <internalNodes>
            0 -1 69 -7.1260123513638973e-04</internalNodes>
          <leafValues>
            4.5183068513870239e-01 -2.4211457371711731e-01</leafValues></_>
        <_>
          <internalNodes>
            0 -1 94 -8.2658641040325165e-03</internalNodes>
          <leafValues>
            6.2369710206985474e-01 -1.8929849565029144e-01</leafValues></_>
        <_>
          <internalNodes>
            0 -1 11 -2.3338066413998604e-02</internalNodes>
          <leafValues>
            6.1267888545989990e-01 -1.8565702438354492e-01</leafValues></_>
        <_>
          <internalNodes>
            0 -1 53 -9.0822088532149792e-04</internalNodes>
          <leafValues>
            7.7084159851074219e-01 -1.4762027561664581e-01</leafValues></_>
        <_>
          <internalNodes>
            0 -1 29 -2.6811936404556036e-03</internalNodes>
          <leafValues>
            3.0107814073562622e-01 -3.7254706025123596e-01</leafValues></_>
        <_>
          <internalNodes>
            0 -1 15 5.1902804989367723e-04</internalNodes>
          <leafValues>
            1.4656947553157806e-01 -7.5494766235351562e-01</leafValues></_>
        <_>
          <internalNodes>
            0 -1 90 -9.1409316519275308e-04</internalNodes>
          <leafValues>
            6.4767038822174072e-01 -2.1038234233856201e-01</leafValues></_></weakClassifiers></_>
    <!-- stage 5 -->
    <_>
      <maxWeakCount>21</maxWeakCount>
      <stageThreshold>-1.3901408910751343e+00</stageThreshold>
      <weakClassifiers>
        <_>
          <internalNodes>
            0 -1 34 -3.7286347150802612e-01</internalNodes>
          <leafValues>
            8.4126985073089600e-01 -5.4858613014221191e-01</leafValues></_>
        <_>
          <internalNodes>
            0 -1 64 -5.5403318256139755e-03</internalNodes>
          <leafValues>
            7.0249265432357788e-01 -2.5649237632751465e-01</leafValues></_>
        <_>
          <internalNodes>
            0 -1 13 2.2281801328063011e-02</internalNodes>
          <leafValues>
            2.4947693943977356e-01 -6.2481695413589478e-01</leafValues></_>
        <_>
          <internalNodes>
            0 -1 73 -3.0543981119990349e-03</internalNodes>
          <leafValues>
            6.6453421115875244e-01 -1.9834320247173309e-01</leafValues></_>
        <_>
          <internalNodes>
            0 -1 22 2.9679584258701652e-05</internalNodes>
          <leafValues>
            1.9121898710727692e-01 -7.6233077049255371e-01</leafValues></_>
        <_>
          <internalNodes>
            0 -1 1 -1.4661241322755814e-02</internalNodes>
          <leafValues>
            5.1075196266174316e-01 -2.3681448400020599e-01</leafValues></_>
        <_>
          <internalNodes>
            0 -1 102 -8.3741877460852265e-05</internalNodes>
          <leafValues>
            -7.4225491285324097e-01 1.9581441581249237e-01</leafValues></_>
        <_>
          <internalNodes>
            0 -1 42 2.5402167811989784e-03</internalNodes>
          <leafValues>
            -1.8219678103923798e-01 7.3148494958877563e-01</leafValues></_>
        <_>
          <internalNodes>
            0 -1 52 -1.9256452098488808e-02</internalNodes>
          <leafValues>
            -5.0215524435043335e-01 2.3704957962036133e-01</leafValues></_>
        <_>
          <internalNodes>
            0 -1 85 -7.8753015259280801e-04</internalNodes>
          <leafValues>
            -8.2793927192687988e-01 1.3878919184207916e-01</leafValues></_>
        <_>
          <internalNodes>
            0 -1 49 3.3237477764487267e-03</internalNodes>
          <leafValues>
            -2.2113509476184845e-01 6.0418856143951416e-01</leafValues></_>
        <_>
          <internalNodes>
            0 -1 100 -6.2123530369717628e-05</internalNodes>
          <leafValues>
            -7.0837956666946411e-01 1.7192296683788300e-01</leafValues></_>
        <_>
          <internalNodes>
            0 -1 46 -4.8892619088292122e-03</internalNodes>
          <leafValues>
            5.5266654491424561e-01 -2.0375595986843109e-01</leafValues></_>
        <_>
          <internalNodes>
            0 -1 50 -6.3012652099132538e-03</internalNodes>
          <leafValues>
            6.5216839313507080e-01 -1.6837140917778015e-01</leafValues></_>
        <_>
          <internalNodes>
            0 -1 77 3.8748409133404493e-04</internalNodes>
          <leafValues>
            1.4443778991699219e-01 -8.0293273925781250e-01</leafValues></_>
        <_>
          <internalNodes>
            0 -1 40 -5.1078772230539471e-05</internalNodes>
          <leafValues>
            -3.8955342769622803e-01 2.5800859928131104e-01</leafValues></_>
        <_>
          <internalNodes>
            0 -1 91 -1.3497975887730718e-03</internalNodes>
          <leafValues>
            5.1127213239669800e-01 -2.1275928616523743e-01</leafValues></_>
        <_>
          <internalNodes>
            0 -1 101 6.2625890132039785e-04</internalNodes>
          <leafValues>
            -1.9810298085212708e-01 5.6870985031127930e-01</leafValues></_>
        <_>
          <internalNodes>
            0 -1 30 -4.0228222496807575e-04</internalNodes>
          <leafValues>
            -8.5873025655746460e-01 1.4397452771663666e-01</leafValues></_>
        <_>
          <internalNodes>
            0 -1 96 -1.7926540458574891e-03</internalNodes>
          <leafValues>
            7.2405064105987549e-01 -1.8194907903671265e-01</leafValues></_>
        <_>
          <internalNodes>
            0 -1 6 -9.6468516858294606e-05</internalNodes>
          <leafValues>
            -8.0591261386871338e-01 1.5962253510951996e-01</leafValues></_></weakClassifiers></_></stages>
  <features>
    <_>
      <rects>
        <_>
          0 15 8 64 -1.</_>
        <_>
          0 15 4 32 2.</_>
        <_>
          4 47 4 32 2.</_></rects>
      <tilted>0</tilted></_>
    <_>
      <rects>
        <_>
          0 17 18 32 -1.</_>
        <_>
          0 17 9 16 2.</_>
        <_>
          9 33 9 16 2.</_></rects>
      <tilted>0</tilted></_>
    <_>
      <rects>
        <_>
          0 22 40 48 -1.</_>
        <_>
          0 34 40 24 2.</_></rects>
      <tilted>0</tilted></_>
    <_>
      <rects>
        <_>
          0 24 4 49 -1.</_>
        <_>
          2 24 2 49 2.</_></rects>
      <tilted>0</tilted></_>
    <_>
      <rects>
        <_>
          0 28 12 36 -1.</_>
        <_>
          6 28 6 36 2.</_></rects>
      <tilted>0</tilted></_>
    <_>
      <rects>
        <_>
          0 31 6 42 -1.</_>
        <_>
          3 31 3 42 2.</_></rects>
      <tilted>0</tilted></_>
    <_>
      <rects>
        <_>
          0 37 1 2 -1.</_>
        <_>
          0 38 1 1 2.</_></rects>
      <tilted>0</tilted></_>
    <_>
      <rects>
        <_>
          0 37 26 16 -1.</_>
        <_>
          0 37 13 8 2.</_>
        <_>
          13 45 13 8 2.</_></rects>
      <tilted>0</tilted></_>
    <_>
      <rects>
        <_>
          0 41 4 17 -1.</_>
        <_>
          1 41 2 17 2.</_></rects>
      <tilted>0</tilted></_>
    <_>
      <rects>
        <_>
          0 42 18 20 -1.</_>
        <_>
          6 42 6 20 3.</_></rects>
      <tilted>0</tilted></_>
    <_>
      <rects>
        <_>
          0 54 3 6 -1.</_>
        <_>
          0 56 3 2 3.</_></rects>
      <tilted>0</tilted></_>
    <_>
      <rects>
        <_>
          1 16 27 24 -1.</_>
        <_>
          10 16 9 24 3.</_></rects>
      <tilted>0</tilted></_>
    <_>
      <rects>
        <_>
          1 34 39 10 -1.</_>
        <_>
          14 34 13 10 3.</_></rects>
      <tilted>0</tilted></_>
    <_>
      <rects>
        <_>
          1 40 38 22 -1.</_>
        <_>
          1 51 38 11 2.</_></rects>
      <tilted>0</tilted></_>
    <_>
      <rects>
        <_>
          1 54 33 3 -1.</_>
        <_>
          1 55 33 1 3.</_></rects>
      <tilted>0</tilted></_>
    <_>
      <rects>
        <_>
          1 92 20 1 -1.</_>
        <_>
          6 92 10 1 2.</_></rects>
      <tilted>0</tilted></_>
    <_>
      <rects>
        <_>
          1 92 30 6 -1.</_>
        <_>
          11 94 10 2 9.</_></rects>
      <tilted>0</tilted></_>
    <_>
      <rects>
        <_>
          2 1 12 58 -1.</_>
        <_>
          2 1 6 29 2.</_>
        <_>
          8 30 6 29 2.</_></rects>
      <tilted>0</tilted></_>
    <_>
      <rects>
        <_>
          2 27 12 25 -1.</_>
        <_>
          5 27 6 25 2.</_></rects>
      <tilted>0</tilted></_>
    <_>
      <rects>
        <_>
          2 94 12 3 -1.</_>
        <_>
          6 94 4 3 3.</_></rects>
      <tilted>0</tilted></_>
    <_>
      <rects>
        <_>
          3 0 30 6 -1.</_>
        <_>
          13 0 10 6 3.</_></rects>
      <tilted>0</tilted></_>
    <_>
      <rects>
        <_>
          3 2 36 96 -1.</_>
        <_>
          15 34 12 32 9.</_></rects>
      <tilted>0</tilted></_>
    <_>
      <rects>
        <_>
          3 12 2 1 -1.</_>
        <_>
          4 12 1 1 2.</_></rects>
      <tilted>0</tilted></_>
    <_>
      <rects>
        <_>
          3 99 36 1 -1.</_>
        <_>
          15 99 12 1 3.</_></rects>
      <tilted>0</tilted></_>
    <_>
      <rects>
        <_>
          4 29 20 38 -1.</_>
        <_>
          4 29 10 19 2.</_>
        <_>
          14 48 10 19 2.</_></rects>
      <tilted>0</tilted></_>
    <_>
      <rects>
        <_>
          4 30 36 14 -1.</_>
        <_>
          4 37 36 7 2.</_></rects>
      <tilted>0</tilted></_>
    <_>
      <rects>
        <_>
          5 0 8 7 -1.</_>
        <_>
          9 0 4 7 2.</_></rects>
      <tilted>0</tilted></_>
    <_>
      <rects>
        <_>
          5 0 8 9 -1.</_>
        <_>
          9 0 4 9 2.</_></rects>
      <tilted>0</tilted></_>
    <_>
      <rects>
        <_>
          5 17 24 80 -1.</_>
        <_>
          5 37 24 40 2.</_></rects>
      <tilted>0</tilted></_>
    <_>
      <rects>
        <_>
          6 33 29 15 -1.</_>
        <_>
          6 38 29 5 3.</_></rects>
      <tilted>0</tilted></_>
    <_>
      <rects>
        <_>
          7 80 3 6 -1.</_>
        <_>
          8 81 1 6 3.</_></rects>
      <tilted>1</tilted></_>
    <_>
      <rects>
        <_>
          8 45 12 10 -1.</_>
        <_>
          12 45 4 10 3.</_></rects>
      <tilted>0</tilted></_>
    <_>
      <rects>
        <_>
          9 36 12 7 -1.</_>
        <_>
          12 39 6 7 2.</_></rects>
      <tilted>1</tilted></_>
    <_>
      <rects>
        <_>
          9 47 6 10 -1.</_>
        <_>
          9 47 3 5 2.</_>
        <_>
          12 52 3 5 2.</_></rects>
      <tilted>0</tilted></_>
    <_>
      <rects>
        <_>
          10 0 25 100 -1.</_>
        <_>
          10 25 25 50 2.</_></rects>
      <tilted>0</tilted></_>
    <_>
      <rects>
        <_>
          10 88 2 9 -1.</_>
        <_>
          10 88 1 9 2.</_></rects>
      <tilted>1</tilted></_>
    <_>
      <rects>
        <_>
          10 94 6 6 -1.</_>
        <_>
          13 94 3 6 2.</_></rects>
      <tilted>0</tilted></_>
    <_>
      <rects>
        <_>
          11 51 9 7 -1.</_>
        <_>
          14 51 3 7 3.</_></rects>
      <tilted>0</tilted></_>
    <_>
      <rects>
        <_>
          11 54 29 2 -1.</_>
        <_>
          11 55 29 1 2.</_></rects>
      <tilted>0</tilted></_>
    <_>
      <rects>
        <_>
          11 90 4 3 -1.</_>
        <_>
          11 90 2 3 2.</_></rects>
      <tilted>1</tilted></_>
    <_>
      <rects>
        <_>
          12 4 4 2 -1.</_>
        <_>
          12 4 2 2 2.</_></rects>
      <tilted>1</tilted></_>
    <_>
      <rects>
        <_>
          12 42 13 12 -1.</_>
        <_>
          12 46 13 4 3.</_></rects>
      <tilted>0</tilted></_>
    <_>
      <rects>
        <_>
          12 45 6 10 -1.</_>
        <_>
          12 45 3 5 2.</_>
        <_>
          15 50 3 5 2.</_></rects>
      <tilted>0</tilted></_>
    <_>
      <rects>
        <_>
          13 0 2 3 -1.</_>
        <_>
          14 0 1 3 2.</_></rects>
      <tilted>0</tilted></_>
    <_>
      <rects>
        <_>
          14 5 9 44 -1.</_>
        <_>
          14 16 9 22 2.</_></rects>
      <tilted>0</tilted></_>
    <_>
      <rects>
        <_>
          14 10 15 88 -1.</_>
        <_>
          14 32 15 44 2.</_></rects>
      <tilted>0</tilted></_>
    <_>
      <rects>
        <_>
          14 21 22 6 -1.</_>
        <_>
          12 23 22 2 3.</_></rects>
      <tilted>1</tilted></_>
    <_>
      <rects>
        <_>
          14 34 20 3 -1.</_>
        <_>
          13 35 20 1 3.</_></rects>
      <tilted>1</tilted></_>
    <_>
      <rects>
        <_>
          14 43 18 3 -1.</_>
        <_>
          13 44 18 1 3.</_></rects>
      <tilted>1</tilted></_>
    <_>
      <rects>
        <_>
          14 45 6 6 -1.</_>
        <_>
          16 47 2 6 3.</_></rects>
      <tilted>1</tilted></_>
    <_>
      <rects>
        <_>
          15 28 22 6 -1.</_>
        <_>
          13 30 22 2 3.</_></rects>
      <tilted>1</tilted></_>
    <_>
      <rects>
        <_>
          15 41 4 30 -1.</_>
        <_>
          15 41 2 15 2.</_>
        <_>
          17 56 2 15 2.</_></rects>
      <tilted>0</tilted></_>
    <_>
      <rects>
        <_>
          15 41 23 28 -1.</_>
        <_>
          15 55 23 14 2.</_></rects>
      <tilted>0</tilted></_>
    <_>
      <rects>
        <_>
          15 55 6 4 -1.</_>
        <_>
          14 56 6 2 2.</_></rects>
      <tilted>1</tilted></_>
    <_>
      <rects>
        <_>
          16 15 4 24 -1.</_>
        <_>
          16 27 4 12 2.</_></rects>
      <tilted>0</tilted></_>
    <_>
      <rects>
        <_>
          16 56 4 7 -1.</_>
        <_>
          17 56 2 7 2.</_></rects>
      <tilted>0</tilted></_>
    <_>
      <rects>
        <_>
          16 58 6 10 -1.</_>
        <_>
          18 58 2 10 3.</_></rects>
      <tilted>0</tilted></_>
    <_>
      <rects>
        <_>
          16 94 24 1 -1.</_>
        <_>
          22 94 12 1 2.</_></rects>
      <tilted>0</tilted></_>
    <_>
      <rects>
        <_>
          17 7 8 46 -1.</_>
        <_>
          17 30 8 23 2.</_></rects>
      <tilted>0</tilted></_>
    <_>
      <rects>
        <_>
          18 27 6 44 -1.</_>
        <_>
          20 27 2 44 3.</_></rects>
      <tilted>0</tilted></_>
    <_>
      <rects>
        <_>
          18 38 14 3 -1.</_>
        <_>
          17 39 14 1 3.</_></rects>
      <tilted>1</tilted></_>
    <_>
      <rects>
        <_>
          18 39 22 14 -1.</_>
        <_>
          18 39 11 7 2.</_>
        <_>
          29 46 11 7 2.</_></rects>
      <tilted>0</tilted></_>
    <_>
      <rects>
        <_>
          18 58 9 6 -1.</_>
        <_>
          21 58 3 6 3.</_></rects>
      <tilted>0</tilted></_>
    <_>
      <rects>
        <_>
          19 43 6 20 -1.</_>
        <_>
          19 43 3 10 2.</_>
        <_>
          22 53 3 10 2.</_></rects>
      <tilted>0</tilted></_>
    <_>
      <rects>
        <_>
          20 42 6 24 -1.</_>
        <_>
          20 42 3 12 2.</_>
        <_>
          23 54 3 12 2.</_></rects>
      <tilted>0</tilted></_>
    <_>
      <rects>
        <_>
          21 41 6 12 -1.</_>
        <_>
          23 43 2 12 3.</_></rects>
      <tilted>1</tilted></_>
    <_>
      <rects>
        <_>
          21 47 9 5 -1.</_>
        <_>
          24 47 3 5 3.</_></rects>
      <tilted>0</tilted></_>
    <_>
      <rects>
        <_>
          21 48 4 13 -1.</_>
        <_>
          22 48 2 13 2.</_></rects>
      <tilted>0</tilted></_>
    <_>
      <rects>
        <_>
          21 58 3 8 -1.</_>
        <_>
          22 59 1 8 3.</_></rects>
      <tilted>1</tilted></_>
    <_>
      <rects>
        <_>
          22 33 6 10 -1.</_>
        <_>
          24 33 2 10 3.</_></rects>
      <tilted>0</tilted></_>
    <_>
      <rects>
        <_>
          22 37 18 16 -1.</_>
        <_>
          22 37 9 8 2.</_>
        <_>
          31 45 9 8 2.</_></rects>
      <tilted>0</tilted></_>
    <_>
      <rects>
        <_>
          22 39 12 14 -1.</_>
        <_>
          22 39 6 7 2.</_>
        <_>
          28 46 6 7 2.</_></rects>
      <tilted>0</tilted></_>
    <_>
      <rects>
        <_>
          22 53 8 9 -1.</_>
        <_>
          24 53 4 9 2.</_></rects>
      <tilted>0</tilted></_>
    <_>
      <rects>
        <_>
          23 42 6 12 -1.</_>
        <_>
          23 42 3 6 2.</_>
        <_>
          26 48 3 6 2.</_></rects>
      <tilted>0</tilted></_>
    <_>
      <rects>
        <_>
          23 99 6 1 -1.</_>
        <_>
          26 99 3 1 2.</_></rects>
      <tilted>0</tilted></_>
    <_>
      <rects>
        <_>
          24 33 9 20 -1.</_>
        <_>
          27 33 3 20 3.</_></rects>
      <tilted>0</tilted></_>
    <_>
      <rects>
        <_>
          24 50 6 12 -1.</_>
        <_>
          24 50 3 6 2.</_>
        <_>
          27 56 3 6 2.</_></rects>
      <tilted>0</tilted></_>
    <_>
      <rects>
        <_>
          24 99 12 1 -1.</_>
        <_>
          28 99 4 1 3.</_></rects>
      <tilted>0</tilted></_>
    <_>
      <rects>
        <_>
          25 30 6 26 -1.</_>
        <_>
          25 30 3 13 2.</_>
        <_>
          28 43 3 13 2.</_></rects>
      <tilted>0</tilted></_>
    <_>
      <rects>
        <_>
          25 39 4 15 -1.</_>
        <_>
          26 40 2 15 2.</_></rects>
      <tilted>1</tilted></_>
    <_>
      <rects>
        <_>
          25 41 3 22 -1.</_>
        <_>
          26 42 1 22 3.</_></rects>
      <tilted>1</tilted></_>
    <_>
      <rects>
        <_>
          25 42 4 8 -1.</_>
        <_>
          25 42 2 4 2.</_>
        <_>
          27 46 2 4 2.</_></rects>
      <tilted>0</tilted></_>
    <_>
      <rects>
        <_>
          25 42 4 12 -1.</_>
        <_>
          25 42 2 6 2.</_>
        <_>
          27 48 2 6 2.</_></rects>
      <tilted>0</tilted></_>
    <_>
      <rects>
        <_>
          26 38 3 14 -1.</_>
        <_>
          27 39 1 14 3.</_></rects>
      <tilted>1</tilted></_>
    <_>
      <rects>
        <_>
          27 42 2 6 -1.</_>
        <_>
          27 42 1 3 2.</_>
        <_>
          28 45 1 3 2.</_></rects>
      <tilted>0</tilted></_>
    <_>
      <rects>
        <_>
          27 94 12 2 -1.</_>
        <_>
          33 94 6 2 2.</_></rects>
      <tilted>0</tilted></_>
    <_>
      <rects>
        <_>
          28 21 12 59 -1.</_>
        <_>
          32 21 4 59 3.</_></rects>
      <tilted>0</tilted></_>
    <_>
      <rects>
        <_>
          28 26 4 17 -1.</_>
        <_>
          29 27 2 17 2.</_></rects>
      <tilted>1</tilted></_>
    <_>
      <rects>
        <_>
          28 30 12 38 -1.</_>
        <_>
          31 30 6 38 2.</_></rects>
      <tilted>0</tilted></_>
    <_>
      <rects>
        <_>
          28 40 3 9 -1.</_>
        <_>
          29 41 1 9 3.</_></rects>
      <tilted>1</tilted></_>
    <_>
      <rects>
        <_>
          28 41 6 3 -1.</_>
        <_>
          27 42 6 1 3.</_></rects>
      <tilted>1</tilted></_>
    <_>
      <rects>
        <_>
          29 24 3 25 -1.</_>
        <_>
          30 25 1 25 3.</_></rects>
      <tilted>1</tilted></_>
    <_>
      <rects>
        <_>
          29 31 10 41 -1.</_>
        <_>
          34 31 5 41 2.</_></rects>
      <tilted>0</tilted></_>
    <_>
      <rects>
        <_>
          29 32 10 32 -1.</_>
        <_>
          34 32 5 32 2.</_></rects>
      <tilted>0</tilted></_>
    <_>
      <rects>
        <_>
          30 29 8 56 -1.</_>
        <_>
          30 29 4 28 2.</_>
        <_>
          34 57 4 28 2.</_></rects>
      <tilted>0</tilted></_>
    <_>
      <rects>
        <_>
          30 42 4 21 -1.</_>
        <_>
          31 43 2 21 2.</_></rects>
      <tilted>1</tilted></_>
    <_>
      <rects>
        <_>
          31 27 3 20 -1.</_>
        <_>
          32 28 1 20 3.</_></rects>
      <tilted>1</tilted></_>
    <_>
      <rects>
        <_>
          31 28 4 26 -1.</_>
        <_>
          32 29 2 26 2.</_></rects>
      <tilted>1</tilted></_>
    <_>
      <rects>
        <_>
          32 29 8 43 -1.</_>
        <_>
          36 29 4 43 2.</_></rects>
      <tilted>0</tilted></_>
    <_>
      <rects>
        <_>
          34 82 4 5 -1.</_>
        <_>
          36 82 2 5 2.</_></rects>
      <tilted>0</tilted></_>
    <_>
      <rects>
        <_>
          37 93 2 7 -1.</_>
        <_>
          38 93 1 7 2.</_></rects>
      <tilted>0</tilted></_>
    <_>
      <rects>
        <_>
          38 37 2 33 -1.</_>
        <_>
          39 37 1 33 2.</_></rects>
      <tilted>0</tilted></_>
    <_>
      <rects>
        <_>
          39 59 1 2 -1.</_>
        <_>
          39 60 1 1 2.</_></rects>
      <tilted>0</tilted></_></features></cascade>
</opencv_storage>
